ankle-foot -0.123255 0.644457 0.027275 0.194963 -2.088224 1.151047 0.592734 0.421004 0.266072 0.566871 0.392189 1.240918 -0.070928 -0.393183 -0.553552 -0.544244 -0.490659 -0.190033 -0.965517 -0.677514 0.814605 -0.541706 -0.580025 -0.608592 -0.403307
influenza -0.732945 0.148739 -0.815327 -1.345115 0.14042 0.891159 -0.217375 0.03322 -0.709354 -0.899465 -0.919823 -0.243227 0.538027 1.380388 1.237275 -1.410846 -0.454368 -2.194491 2.834176 0.685091 -0.611403 -0.442058 -0.190985 -0.04532 -0.353029
cryptosporidiosis -1.819235 -0.327303 -0.481366 -0.592732 -0.37561 0.619413 0.050662 0.301789 -0.466702 -0.557574 -1.556758 -0.086493 -0.424187 0.654534 0.981946 -0.656637 -1.05912 -0.365171 0.181841 -0.170475 -0.342622 0.059387 1.042569 1.102482 -0.913638
thigh -0.454054 -0.599271 0.348998 -0.273861 0.978671 1.210237 -0.498302 -1.759616 0.182491 1.422284 0.32865 1.240968 0.607797 0.430371 -0.394428 1.002459 0.34359 0.957047 0.833983 -1.567728 -0.038821 -0.100601 -0.583799 0.00082 0.152499
cried 0.099781 -1.337532 0.176966 0.220338 0.012641 2.249556 1.078956 -1.23446 0.95818 -1.313212 0.445869 -0.115077 -0.662978 0.439379 -1.212023 0.895525 -0.12393 -0.217972 -0.267204 0.290177 -0.706556 -0.151889 0.423361 0.838139 -0.169334
lacrimal -0.176814 -0.131954 1.155192 0.452934 0.809553 0.75623 -0.492658 -0.434009 0.137344 1.194236 -0.073991 0.910647 0.441547 0.584469 0.712123 0.489682 0.615469 0.240466 0.017037 -1.661957 -0.16766 0.750407 0.208919 0.465457 0.054102
mucosa 0.025332 0.431478 0.81104 1.357558 1.877856 1.00241 -0.55245 -1.403058 0.123248 1.108057 -1.077498 0.512419 1.130381 0.752366 0.633513 0.59605 -0.469024 0.713071 1.724685 -0.700873 -0.058265 1.186874 0.479114 0.294852 -0.821341
explantation -0.587889 -0.083624 0.066034 0.129854 -0.517342 0.767264 0.411653 -0.48516 0.23468 0.808142 0.850062 0.615442 0.179635 0.369309 -0.474295 0.802625 -0.867696 -1.1607 -0.122039 -0.590307 -1.221548 0.297061 1.296079 -0.163071 0.909372
expectoration -0.60771 -0.337743 0.059266 -0.851582 1.123444 2.689016 0.507943 -1.021483 -0.511296 -0.414864 -0.917042 -0.323615 0.449341 -0.171762 0.587563 1.053637 -0.743844 -0.225684 -0.625771 -0.161427 0.347756 0.897086 0.341958 0.340507 0.739887
dysphagia -0.94522 -0.258859 -0.058891 0.351699 0.402197 2.900555 -0.285547 -0.622308 -0.805661 0.449736 0.166971 0.88726 -0.407792 -0.440814 0.139268 0.455914 -1.280402 0.854051 0.753713 -0.990953 0.685086 -0.401574 0.726151 0.822511 0.750466
gallbladder -0.041434 0.223444 1.415816 1.089931 0.487518 0.842148 -0.019311 -0.929997 -0.092689 1.180746 -0.648997 0.581722 -0.165845 0.422298 0.508924 0.490696 -0.732098 1.031251 0.906006 -1.051792 -0.810207 0.727214 1.224185 1.241171 -0.2409
malignant -0.027583 0.292552 0.352191 2.57133 1.622965 0.165065 -0.342531 -0.776356 -1.143236 0.341642 0.182363 -0.294263 0.580243 0.789082 1.851472 0.124912 -0.946156 0.755624 2.781302 -0.521752 -1.572884 -0.06784 0.842255 0.608789 -0.162297
gonadal -0.923845 -0.487518 0.323092 1.624291 1.477826 -0.093337 -1.390631 -0.255574 -0.090761 -0.060673 0.848586 0.664932 0.249278 0.337946 -0.450257 0.654236 0.812377 -0.151817 0.793803 -0.71665 0.655709 0.356343 1.20953 0.325091 0.38644
tumours 0.641485 0.185333 -0.247401 2.190193 1.745498 -0.218233 -0.918228 -0.966715 -0.939651 0.285113 -0.291336 -0.319033 0.985193 0.9434 0.663445 0.638101 -0.742923 0.909583 2.610566 -0.20758 -1.881043 -0.351821 0.784031 0.63689 -0.239047
duodenal -0.251284 0.762764 1.426039 0.933125 1.002257 1.087694 -0.477138 -0.623138 -0.27883 1.419156 -0.688058 1.080518 0.499903 0.579384 0.219191 0.210773 -0.414481 0.602291 0.614082 -0.807871 -0.619687 0.664935 1.18903 1.049853 0.057829
adrenocortical -0.082174 0.011736 0.441122 1.91947 1.214147 -0.00359 -1.221303 0.261761 -0.898699 -0.465071 -0.010781 0.203327 -0.013083 0.305911 0.4457 0.718356 -0.146887 0.579021 0.070237 -0.95542 -0.37947 -0.378289 0.722533 0.32055 0.466464
proctectomy -1.029859 -0.126502 0.654532 0.16362 -0.410602 1.133214 -0.096496 -0.372967 0.261505 1.181784 0.922903 1.482141 0.353736 -0.306732 0.405863 0.889185 -0.355001 -1.674233 -0.906051 0.522479 -1.08852 -0.026103 0.956499 0.600985 0.842222
thyroid 0.059452 -0.728526 0.900384 1.767014 1.045873 0.222022 -1.256458 -0.634693 -1.355039 -0.008253 -0.351439 0.66691 0.413191 0.427663 0.696468 0.988769 -0.345899 0.780917 2.363448 -0.861543 -0.370333 -0.221401 0.427135 0.560872 0.66072
cervix -0.265979 -0.079192 0.20318 0.963486 1.443542 0.583687 -0.110473 -1.289937 -0.100569 0.896704 0.044929 0.868093 0.91104 0.339452 0.309189 0.520371 -0.266155 1.026619 0.893161 -0.215246 -1.22918 0.476233 0.803301 0.951014 0.144823
testis -0.28983 -0.197171 0.27135 1.534998 1.360275 -0.236134 -0.976271 -1.393704 0.094087 0.083165 -0.346088 0.590699 0.44392 1.357031 -0.736181 0.720766 0.734967 0.436708 1.343152 -0.838469 -0.059801 0.635643 0.264457 0.636527 1.082324
testicles -0.234491 -1.718618 0.348968 1.013752 1.1326 1.187919 -0.580915 -1.430269 0.315011 -0.081863 -0.545057 0.179987 0.396093 1.042441 -0.681481 1.159134 0.534399 -0.315383 -0.328124 -0.98579 -0.591386 -0.220668 -0.121538 0.757876 0.202802
serosa -0.30851 0.013611 1.256645 0.671556 1.221938 0.235839 0.361077 -1.240991 0.726826 1.180909 0.316267 0.147436 0.840645 0.120332 0.260183 0.654184 0.104706 0.641865 -0.193943 -0.669876 -0.843037 1.217694 0.876342 0.445769 -0.811822
loin -0.974627 -1.032574 -0.362725 0.185303 0.822166 0.712231 -0.403064 -1.33514 0.498928 0.819364 -0.475816 0.629186 0.049596 -0.664363 -0.551836 1.502571 -0.066949 0.817177 -0.771403 -0.926785 1.086323 -0.006931 -0.678908 0.677811 0.688535
eat 0.230119 -0.792622 0.580165 0.646541 0.846629 1.241893 1.013323 -1.064835 0.993503 -1.07252 -0.04962 1.126308 0.309794 -0.379201 -1.686801 0.622761 -0.752987 1.219875 0.890092 0.612197 0.074206 -0.613141 -0.936522 0.026268 -0.882502
cesophagus -0.191576 -1.843679 0.637226 0.068976 0.326203 0.620357 0.555372 0.109969 0.447418 0.952838 0.55906 -0.002818 0.798518 0.770643 -0.460901 0.44225 -5.2e-05 0.249982 -0.839667 0.155917 -0.000841 0.269536 0.559084 0.768575 0.420967
implantation -0.30272 0.283276 0.18855 0.661378 0.119224 0.404615 -0.110696 -0.740565 0.147992 1.37355 0.983835 1.527274 0.925816 0.323477 -0.296058 0.688634 -0.954846 -0.830645 2.136528 -1.496685 -0.821499 0.032803 0.9013 -0.287869 0.025921
ovotestis -0.27446 -0.877555 -0.047093 0.904175 0.907765 0.571586 -0.441183 -0.422245 0.181391 0.242486 0.784726 0.213029 0.085812 0.397297 -0.248967 0.256514 0.775141 0.00957 -0.924753 -1.343589 0.025668 0.353891 0.33468 -0.260726 0.523316
decompression -0.219114 0.12755 0.531126 0.345205 0.203485 1.640683 0.021667 -0.256637 -0.011798 2.09579 1.315068 1.416446 -0.19868 0.01202 0.18496 0.880989 -0.946321 -0.487678 1.310363 -1.240225 -0.664709 -0.097237 1.152433 0.420044 0.503179
nephrectomy 0.038667 -0.025174 0.686687 1.102833 -0.041081 0.498872 -0.494973 -0.385417 -0.353933 0.967742 0.999541 1.701054 -0.095374 0.177954 -0.132612 1.180266 -0.736453 -0.161459 1.131019 -0.801838 -2.139255 -0.981741 0.75316 1.076428 0.482399
placenta -0.712526 -0.195387 1.023132 1.189457 0.838099 -0.083561 -0.247503 -1.019073 0.179711 -0.054221 -0.639069 1.437567 0.422813 0.832638 -0.515684 0.518437 0.402104 -0.087295 1.236822 -0.570973 -0.033011 1.215194 0.912192 0.7963 0.220361
catarrh -0.476066 -0.056869 -0.415036 -0.099409 1.061875 1.906317 -0.104881 0.098567 0.491547 -0.987836 -0.097627 -0.572489 0.775026 0.547524 1.017904 0.524403 -0.171525 -0.419213 -0.81505 -1.200893 -0.009922 0.373827 0.331386 0.919583 -0.347467
resections 0.212957 -0.688741 0.148205 0.915884 0.635614 0.362521 -0.468506 -0.425173 -0.82244 1.814536 1.037437 1.60562 -0.23626 -0.190794 0.251655 1.257846 -0.090175 0.097523 1.190452 -0.527831 -2.026537 -0.344415 1.167005 1.373419 0.173603
scrotum -0.538106 -1.144199 0.191992 0.383254 1.201794 1.661574 0.086334 -1.342546 0.53273 1.308252 0.125755 0.416661 0.576834 1.070857 0.381469 0.987211 0.288258 0.46002 0.107828 -1.055209 -0.343115 0.524232 -0.054269 1.164305 0.532243
colorectal -0.303373 0.332031 0.013101 1.722762 1.116272 -0.457802 -0.391265 -0.362807 -1.058867 0.243475 -0.394705 1.349639 0.895492 0.513952 1.210986 -0.38624 -1.374853 1.311507 2.408645 0.275463 -1.768667 -0.358467 1.101661 0.523942 0.465979
hiv -0.997662 -0.518022 -0.384189 -0.82441 0.000148 0.595617 0.386061 -0.437077 -0.634711 -1.381119 -0.460607 1.615189 0.255344 0.826631 1.411603 -1.172661 -0.67957 -1.048386 3.328003 1.349694 -1.143852 -0.234245 0.154364 -0.760563 -0.374688
pharynx -0.585253 0.13949 0.209466 0.459702 1.154844 0.883341 0.200594 -0.758237 0.482025 0.735196 0.569479 0.613981 0.925314 1.001055 -0.18204 0.385568 0.465126 0.751289 0.221338 -1.083635 0.193658 0.935787 0.247313 0.930542 -0.205478
cholera -0.537989 0.190084 0.04631 -1.526308 -0.46194 1.088916 0.130564 0.043627 -0.774643 -1.253113 -0.967229 -0.649453 0.855346 0.764065 1.243429 -1.139944 -0.658358 -1.279334 1.443361 -0.067336 -0.046959 0.000979 0.158583 0.579525 -0.486815
stools -0.7304 -0.516065 0.199899 0.039287 1.016247 2.532404 0.219357 -1.937262 -0.737438 -0.178603 -1.761514 -0.361039 0.102444 0.052749 -0.434732 0.645886 -0.414004 -0.327647 0.052582 0.131159 0.248618 0.756075 -0.036842 1.292221 0.153111
submandibular 0.110205 -0.123607 0.761864 0.619232 1.699039 0.571376 -0.841986 -0.810037 -0.168491 1.255614 -0.371129 0.764107 0.521992 0.528005 0.099414 0.960361 0.702821 -0.078964 0.038461 -1.522811 -0.94596 0.363687 -0.108989 0.546918 0.453056
breast 0.219524 -0.344567 -0.093549 1.680852 1.445889 -0.544522 -0.489055 -0.822018 -0.864671 0.397763 -0.326964 1.229163 1.262611 0.451062 0.840702 -0.228146 -1.422246 1.490472 3.379942 0.260767 -1.367264 -0.165857 0.981429 -0.051695 0.430391
tuberculosis -1.358983 0.350355 0.084488 0.142249 0.509473 0.691587 0.34199 -0.650312 -0.338309 -0.78303 -0.76566 0.315747 0.58967 1.30183 1.440328 -1.239404 -0.865485 -1.193428 2.283078 0.067487 -0.981438 -0.183807 -0.105385 0.924577 0.261277
foot -0.572826 -0.235174 -0.313471 -0.605203 0.417966 2.285257 0.303619 -1.493758 0.110004 1.21369 0.460733 1.23884 -0.148991 -0.074897 0.039355 0.087534 -0.074927 0.511858 1.708301 -1.238489 0.739701 0.36091 -0.052883 -0.432918 0.01045
enucleation -0.230225 0.017956 0.317908 0.861785 -0.245259 0.917824 -0.216036 -0.493194 0.107695 1.21588 1.206619 0.141389 -0.122118 0.571243 -0.226809 0.583726 -0.836383 -0.537361 0.433785 -0.95579 -1.288013 -0.489462 1.018121 0.260133 0.821735
complain 0.116404 -1.863581 0.628397 -0.160056 0.047265 3.114635 0.429382 -0.459232 -0.905855 -0.613108 0.168541 0.572638 -0.3782 0.339351 0.157769 0.507814 -0.44088 1.207126 0.925634 -0.47808 0.578028 -0.336739 0.19627 0.761707 -0.328329
pancreatoduodenectomy -1.168119 -0.254331 0.446516 0.977442 0.424947 0.292292 -0.158645 -0.410918 0.394872 0.950267 1.323003 1.023061 -0.391133 0.144195 -0.743641 0.528865 -0.64996 -0.142158 -0.474604 -0.777957 -1.68397 -0.823681 0.944883 1.174876 1.662386
defecate 0.054564 -1.289151 0.820455 -0.172014 0.871799 1.685419 1.306753 0.051152 0.348809 -0.246141 -0.310562 1.106952 -0.110252 0.269561 -0.988776 1.297724 -0.508505 0.025806 -0.491467 0.846499 -0.315752 0.398993 -0.004268 0.497601 -1.238545
tumors 0.341565 0.382587 -0.204706 2.78215 1.775473 -0.269054 -0.501025 -0.965697 -0.981848 0.595187 0.012379 0.169761 1.137996 1.526489 0.895442 0.518699 -0.971235 1.098011 3.201942 -0.397493 -1.999051 -0.331874 0.52602 -0.050375 -0.364126
sneezed 1.378805 -0.969125 -0.230138 -0.121827 -0.025665 1.227832 1.072241 0.306258 -0.834162 -0.468817 -0.465842 -0.135927 -0.131896 0.290253 -0.420068 0.495588 0.235157 -0.604543 -1.411167 0.155611 -1.689788 0.215672 0.547538 -0.296803 -1.115265
hemoptysis -0.49473 -0.089674 0.216939 -0.567779 0.882942 2.933468 0.029319 -0.430376 -1.008559 0.092937 -0.180346 -0.247135 -0.324186 0.515801 1.111515 1.278953 -1.152019 0.459948 0.457413 -0.372169 -0.729462 0.318684 0.85217 1.344269 0.344247
oesophagectomy -0.429315 -0.309929 0.248045 0.577276 -0.337385 0.088185 -0.003224 -0.408192 0.234077 1.22765 0.426251 1.735702 0.174521 0.014338 0.183848 0.816586 -0.633281 -0.256575 -0.626443 0.217546 -2.330122 -0.124031 1.773369 1.238523 0.716969
surgery 0.045788 -0.385708 0.257543 0.112654 0.383369 1.973859 -0.313335 -1.117612 -0.322277 0.985288 1.004702 2.348881 0.279395 -0.643566 0.776404 1.027672 -1.52045 0.034438 3.669283 -1.646529 -1.487869 -0.6281 1.055714 1.11016 0.782312
urinating -0.223678 -0.802368 -0.223028 -0.094004 0.757072 1.829752 0.848071 0.026966 0.072143 -0.292386 0.056629 0.390284 -0.064436 -0.102095 -0.653817 1.734892 -0.496539 0.385894 -0.573882 0.965453 0.324909 0.32025 0.546212 0.954579 0.245944
defecation -1.201288 0.049243 0.186869 -0.279624 0.473616 2.188858 0.345202 -0.467836 0.009172 -0.048615 -0.014045 1.376499 -0.588286 -0.206276 -0.759527 0.875406 -0.326317 0.122902 0.198426 0.053586 1.015112 1.024576 1.087327 0.488553 0.183119
ductless 0.309207 -0.960721 0.37911 1.116522 2.034554 0.651477 -0.512504 0.932703 -0.233477 0.777635 -0.211308 0.820084 0.244129 -0.488955 0.036815 -0.037653 1.133645 -1.046279 -1.222174 -0.394592 0.791138 0.68141 0.912449 1.318283 0.258991
lung -0.426493 0.400708 0.502099 1.103203 1.682774 -0.07984 -0.891929 -1.027117 -0.430785 0.077288 -1.126265 0.614793 0.670756 0.700303 0.847601 0.862387 -1.432534 0.685747 3.110178 -1.082741 -1.017483 0.535614 0.833319 -0.240019 -0.362603
pituitary 0.261695 0.046163 0.83604 1.688398 1.578253 0.10738 -1.373263 -0.105488 -0.808953 -0.169786 0.106213 0.764141 0.756651 0.807078 -0.255916 0.752081 0.447293 0.317755 1.308834 -1.626399 0.31015 0.081355 0.381888 0.42886 0.862072
surgeries -0.324672 -0.694164 -0.319126 0.28764 -0.08254 1.321154 -0.094227 -0.411506 -0.669274 1.190097 0.70181 2.402491 -0.068602 -0.18158 0.134466 0.908682 -0.582578 -0.294057 1.954515 -0.905975 -0.877827 -0.301901 1.028654 1.395961 0.237389
encephalitis -1.020463 0.138967 -0.674488 -0.73175 0.511143 1.839181 -0.651809 0.057867 -0.623315 -0.913395 -0.755616 -0.627988 0.229808 1.77952 2.275895 -0.8311 -0.403449 -0.454723 1.280219 -1.400242 -0.78955 -0.332244 -0.108672 1.083971 -0.484579
jejunal -0.275392 0.5577 1.219264 0.65152 1.034236 0.502584 -0.596412 -0.828771 0.273317 1.357233 -0.54176 1.170095 0.197695 0.587795 -0.351053 0.383336 0.387347 -0.192087 0.009583 -1.307962 -0.656253 0.940104 0.929791 0.351943 0.119303
salivary -0.618425 0.358595 0.797202 1.121065 1.617739 0.422111 -1.249129 -0.792147 -0.024238 0.188178 -1.669428 0.620452 0.449088 0.781826 -0.421068 -0.134896 -0.05514 -0.286642 1.210829 -0.351255 0.468383 0.745257 0.571522 0.522787 0.448451
glioma 0.253289 0.592885 -0.451252 1.777403 0.76512 -0.999359 -0.335662 0.18372 -0.492187 0.168104 0.080978 0.104096 1.308401 1.089561 0.586958 -0.515056 -1.197756 0.946721 1.693064 -0.378698 -1.244774 0.070544 0.953012 -1.070412 -0.135509
ceruminous 0.194022 -0.128408 0.523647 2.683922 0.798759 -0.160697 -0.27076 0.057803 -0.501169 0.530184 0.297092 0.458492 -0.284378 -0.194355 -0.49313 -0.381257 0.578233 0.890188 -1.294902 -0.854335 -0.375902 -0.498605 0.311132 1.605306 0.281654
hysterectomy -0.754484 -0.140348 0.431263 0.639777 0.602053 1.27949 -0.388567 -0.689438 -0.448011 0.969502 0.692366 2.665849 -0.031826 -0.374902 -0.221851 0.760296 -0.485776 0.212908 0.919393 0.415271 -1.556953 -0.69138 1.278189 1.756466 0.914385
tumoral -0.328277 -0.584075 0.638747 1.217966 1.011375 -0.867209 -0.498593 -0.452616 -0.762095 0.717167 -0.25808 -0.011293 0.75101 0.246149 1.319823 0.914536 -0.26862 0.688726 0.756737 -0.005242 -0.485801 0.495623 0.330458 -0.343082 0.115458
aids -0.620151 -0.845966 -0.703763 -0.630336 0.152233 0.749728 0.849829 -0.148463 -0.361339 -1.16082 0.319838 0.949035 0.213968 0.171677 1.441919 -0.746341 -1.125797 -0.210264 2.392795 -0.367235 -0.676128 -0.315253 -0.184801 -0.166636 0.140972
forelimb -0.610284 -0.349275 -0.907681 -0.373191 0.87173 1.52517 -0.85883 -0.815272 0.733783 0.561942 1.168191 0.964868 -0.514628 0.465278 -0.841365 0.539458 1.213902 0.274566 0.403193 -1.332147 1.010691 0.184254 -0.128849 -1.240053 0.457582
coughs -0.169495 0.170356 -0.37445 -1.152037 0.928341 2.095538 0.488826 0.441777 -0.80243 -0.611742 -0.945733 -0.495071 -0.267119 0.037565 0.038058 0.433485 -0.650391 -0.515906 -0.24575 -0.433947 -0.104709 0.267945 0.027371 0.514923 -0.958804
adrenal 0.004826 -0.116598 1.349395 1.779578 1.419251 0.445409 -1.470187 -0.415301 -0.875402 -0.283156 -0.001496 0.338031 -0.167378 0.652728 0.013377 1.300693 0.108091 0.411684 1.653219 -1.745334 -0.217751 -0.211739 0.526261 0.811256 0.463028
gonad -0.843501 -0.568138 -0.2313 1.206306 1.296576 -0.174236 -0.404096 -1.150789 0.371536 0.151389 0.956397 0.059767 0.276346 0.86782 -1.091665 0.27963 0.997432 0.317701 0.632456 -1.131367 0.13311 0.870881 0.727728 0.08731 0.752661
adhesiolysis 0.25813 -0.200264 0.746034 -0.067093 -0.297764 1.316454 -0.358168 -0.084501 -0.276687 1.664743 0.43569 1.354464 -0.011027 -0.468872 0.615919 0.796657 -0.430299 -0.667353 0.061704 -0.204617 -0.999118 0.257989 1.15369 0.674767 0.602706
ovarian -0.072771 0.225644 0.309648 2.209212 1.594342 -0.290852 -0.759943 -0.698767 -0.656895 0.15695 0.075628 0.865324 1.120295 0.903351 0.165373 -0.110044 -0.86355 0.543915 2.376358 -0.248444 -1.225008 0.002194 1.42028 0.3138 0.859786
hepatitis -1.402783 -0.078983 0.230254 -0.055325 0.669945 0.955013 -0.625859 -0.319745 -1.413355 -1.382911 -0.791748 0.215538 0.325746 1.024883 1.826517 -0.345686 -1.074786 -0.796845 2.226818 -0.085298 -1.079999 -1.003225 -0.369884 0.744558 0.402548
ampullary 0.301614 0.19389 0.217942 1.034998 0.737498 -0.058821 -0.272826 0.475056 -1.078442 1.739411 0.313099 0.931767 0.274316 0.306893 0.434596 -0.007166 0.060903 0.968229 -0.148611 -0.534367 -1.253953 0.337819 1.07377 0.840601 -0.773634
sebaceous -0.164359 -0.068783 0.840454 1.911563 1.854618 0.297197 -0.209256 -0.912269 -0.862724 0.499619 0.135836 -0.290595 0.620195 0.183448 0.166725 -0.153617 0.419085 0.659363 -0.240484 -1.334242 -0.047544 0.551979 0.406933 0.871282 -0.050364
dengue -1.33454 -0.120889 -0.740896 -1.341493 0.307291 0.68665 -0.127908 0.086882 -0.777829 -0.378571 -1.255421 -0.014473 0.04272 1.133357 2.005933 -1.274781 -0.96137 -1.03905 1.879813 0.700339 -0.716633 -0.11936 -0.053828 0.046247 -0.578846
thoracotomy 0.366985 -0.102062 0.133531 0.055588 0.925085 1.49114 -0.066854 -0.157301 0.022663 1.972434 1.174595 1.996399 -0.123715 0.195721 0.200505 1.792002 -0.627032 -0.100969 0.774933 -1.164866 -1.656383 -0.089788 0.775757 0.750107 0.467867
claws 0.586378 -0.76605 0.206002 0.529403 0.728059 1.776703 -0.357696 -1.230009 0.063637 0.64261 0.717116 0.051381 0.211925 0.092383 -0.948297 0.079922 1.950904 -0.028598 -0.486767 -0.815076 0.920751 0.131472 -0.630712 0.55803 -0.604136
dissection 0.58397 0.0138 0.092145 1.046604 0.859475 1.031285 0.244058 -0.848431 0.73876 1.752282 0.584466 1.37845 -0.34542 0.272334 0.524473 1.16985 -0.148345 -0.311362 2.059233 -1.136938 -0.909906 0.635447 1.005202 0.679286 0.640384
testes -0.289795 -0.340366 -0.010628 1.626063 0.655413 -0.040662 -0.976556 -1.703893 0.521492 -0.265183 -0.460331 0.706396 0.055886 1.322017 -1.284459 0.935083 0.618447 0.49994 0.978915 -0.764647 -0.436741 0.494466 0.661775 0.294542 0.613037
malaria -1.542704 -0.813899 -0.441186 -1.30158 0.390168 0.89096 0.392981 -0.443434 -0.597314 -0.406824 -1.058649 0.564651 0.348933 0.502982 1.27909 -1.568225 -1.512825 -1.111378 2.743098 0.623125 -0.614452 -0.236136 0.351587 -0.029633 -0.936454
leg -0.56997 -0.016178 -0.166429 -0.750076 0.82326 2.309641 -0.196322 -1.613317 0.460066 0.983768 0.855421 0.887523 -0.16809 0.267196 -0.842259 0.74621 0.286063 0.772976 1.749025 -1.535344 0.734792 -0.028662 -0.117063 -0.182835 0.108397
cecum -0.400382 0.217418 0.714342 0.428776 1.51567 0.471288 -0.383896 -1.286776 0.827761 1.181298 -0.947443 1.162541 0.559623 1.01409 -0.660296 0.940563 0.400602 0.064008 0.149809 -0.591414 -0.99915 0.969825 0.450107 1.174669 -0.414638
pineal 0.047533 -0.463548 0.358544 0.788811 0.892309 -0.202684 -0.895091 0.595745 -0.296099 0.383096 -0.102717 0.137914 0.649289 1.038681 -0.765362 0.258896 0.292343 0.003859 0.190349 -1.851152 0.716023 0.152392 0.372474 0.681007 0.133194
rotavirus -1.763299 0.103165 -0.403928 -0.762946 -0.188202 0.599489 -0.242523 -0.068839 -0.467001 -0.206463 -1.196221 0.409334 0.625643 1.143335 0.87923 -1.177766 -0.726042 -1.510547 0.745061 0.546826 -0.339843 -0.557452 -0.221074 0.611456 0.255736
hindleg -0.40032 -0.722275 -0.807686 0.081693 0.20188 1.412741 -0.456434 -1.038266 0.370478 0.625698 0.832629 -0.509234 -0.542129 0.777818 -0.680976 0.568868 0.614075 0.628208 -0.9835 -0.935431 -0.319348 -0.313505 0.068877 -0.035346 0.82233
shigellosis -1.656848 0.220013 -0.053273 -0.388824 -0.03291 0.668312 0.430258 0.093226 -1.00985 -0.452848 -0.444089 -0.843258 0.181351 0.489809 0.77363 -1.435506 -1.443861 -0.664456 0.082912 -0.231508 -0.896968 -0.168768 0.788354 0.94915 -0.576504
larynx -0.186921 -0.071282 0.057089 0.518263 1.473119 0.953119 0.042152 -0.682733 -0.018484 1.1883 0.36113 1.150343 0.984044 0.278735 0.490491 0.882461 -0.106434 1.055023 0.473812 -0.643603 -0.559535 0.149502 0.012514 0.939272 -0.214335
gastrectomy -0.478679 0.091661 0.758071 0.650874 0.233104 0.516315 -0.453815 -0.636259 0.10391 1.491265 1.008442 1.977584 0.294537 -0.269088 -0.641015 0.421781 -0.632024 0.104611 0.722063 -0.199515 -1.852589 -1.013157 0.882434 1.390104 0.506215
catheterization -0.260054 0.276828 0.730226 -0.640422 -0.393484 1.240012 -0.230591 -0.228096 0.239719 1.407595 -0.147801 2.471668 -0.826 -0.070746 0.537929 1.42289 -0.759657 -0.508551 1.484681 -0.774852 -1.449967 0.096579 1.134924 0.76442 -0.045163
colectomy -0.818412 0.391052 0.247382 0.265423 0.666556 1.093363 -0.107573 -0.412594 -0.018692 1.293934 1.055276 1.793549 -0.233648 -0.13291 -0.003053 0.640181 -0.600371 -0.330985 0.240781 -0.099921 -2.097479 -0.877794 0.916141 1.316413 0.274644
trunk -0.752625 -0.54154 -0.040622 -0.257011 0.780949 1.145323 -0.257986 -1.561037 0.416678 1.597209 0.790073 0.706107 -0.088282 0.544629 -0.28441 0.442378 0.905815 0.548252 1.512504 -1.535697 0.671392 0.406911 -0.113947 -0.151101 -0.308038
mediastinum 0.006353 -1.086244 0.690545 0.231789 1.293256 0.304979 0.069578 -0.829248 -0.476961 1.835476 0.68442 0.297564 0.505984 1.066333 1.290744 1.723452 0.260639 1.136443 0.91633 -1.269606 -1.402858 0.099705 -0.1141 1.121055 -0.391206
cough -0.317276 0.442918 0.028584 -1.088877 1.088363 3.309748 -0.188577 -0.103498 -0.734735 -0.742009 -0.827053 0.109136 -0.275481 -0.270199 0.619985 0.649174 -1.004766 0.286342 1.324171 -0.432281 0.720561 0.113798 0.010267 0.683816 -0.476779
bleed 0.118463 -0.209663 0.88221 -0.864159 0.874621 1.742863 0.128116 -0.29422 -1.174515 0.471427 -0.433973 0.028579 -0.204896 0.636691 0.492044 1.51779 -0.362214 -0.442011 0.542089 -0.501536 -0.836133 0.199302 0.144898 0.797319 -0.195232
drowsy 0.444834 -1.237978 -1.043371 -0.099993 -0.501175 1.785523 1.040811 -0.421967 -0.477108 -1.576379 0.679973 -0.595158 -1.243543 0.36066 0.516859 1.871283 -0.315574 1.227619 0.145494 -0.445003 -0.722381 -0.254525 -0.310433 -0.217463 -0.835957
pancreas 0.037761 0.134305 0.830453 1.912002 1.305112 -0.227949 -0.461301 -1.221835 -0.24629 -0.106696 -0.20323 0.729672 0.417765 0.894307 -0.191881 1.133544 -0.141739 0.826351 1.791611 -1.666626 -0.760432 0.455753 0.315053 0.381206 0.610313
pancreatic -0.033206 0.513058 1.352052 2.32627 1.23306 -0.333185 -0.436473 -0.432891 -0.754897 0.212823 -0.246234 0.90033 0.673222 1.018291 0.510222 0.37858 -0.965554 0.724724 2.339666 -1.152764 -1.003039 0.487763 0.839857 0.17237 0.482215
oviduct -0.11537 -0.031514 0.740071 0.686534 1.168152 0.161085 -0.729506 -0.77627 0.658384 0.286855 0.21485 1.073635 1.032744 0.850023 -0.82775 0.128018 1.253528 -0.299112 -0.105909 -1.278486 0.129989 1.22385 0.857808 0.188625 0.353934
restlessness -0.400493 -0.501998 -0.402369 -0.548965 -0.190544 2.738516 -0.437378 -0.289809 -0.226381 -0.853297 0.291119 -0.406462 -0.472237 -0.259251 0.524156 1.321487 -0.22263 1.340851 0.34036 -0.378133 1.945949 -0.008048 0.38876 0.213351 0.214715
meteorism -0.594959 -0.882329 0.575174 0.252728 0.98086 1.764807 -0.126098 0.325472 -0.487949 -0.232237 -0.658589 0.524942 0.269841 -0.035516 0.403023 1.099206 -0.293096 0.638053 -1.17288 0.424135 1.055329 0.662747 0.582047 0.92245 0.343679
tumor 0.430022 0.461388 0.47615 2.18481 2.084807 -0.401747 -0.458692 -0.773562 -0.730754 0.861394 0.211267 0.009731 1.268231 1.223577 1.358784 0.714055 -1.003876 0.404595 3.754988 -0.103068 -1.527628 0.265952 0.410525 -0.811882 0.296867
stomachs 0.368098 -0.358882 0.136574 0.937958 1.170735 0.922898 -0.251093 -1.070386 0.290367 0.318526 -1.302413 0.671252 0.297955 0.839158 -1.348026 0.401132 0.388208 -0.04661 -0.467015 -0.366773 -0.541031 0.599734 0.266367 0.565233 -0.393807
diarrhoea -1.781044 0.295929 0.101967 -0.592144 0.86407 2.537816 -0.009724 -0.754945 -1.22739 -1.026589 -0.662009 -0.055614 0.476377 -0.055525 0.155644 -0.139419 -1.296752 -0.260699 1.150228 0.114583 0.355922 -0.25305 0.775261 1.631237 -0.333246
testicular -0.726313 -0.279009 0.495614 1.67553 1.092521 0.072979 -1.167151 -1.065254 -0.344364 -0.043856 -0.21666 0.381508 0.428325 0.505417 -0.024951 0.671628 -0.38412 -0.172597 1.291408 -1.169344 -0.156881 0.182825 0.894925 0.611206 1.088741
tenesmus -0.871995 0.108778 0.930434 -0.482375 1.350835 2.855154 -0.060778 -0.551506 -0.528441 0.102997 -0.823025 0.634416 0.024829 -0.753925 0.555103 1.088334 -0.298172 0.485111 -0.740943 0.797098 0.687596 0.745883 0.432931 1.455665 0.427131
peritoneum 0.3517 0.002178 1.327756 0.630456 1.735585 1.009517 0.265166 -1.236702 0.477777 1.040633 0.042074 0.737596 1.195351 0.504192 0.315073 0.967706 0.205781 0.141712 0.6475 -1.260586 -1.306723 1.123282 0.43554 0.370403 -0.74216
tumoural -0.783173 -0.690901 0.026854 0.931156 0.549199 -0.895745 -0.650522 -0.435954 -0.823541 0.912772 -0.570917 -0.101015 0.338023 0.124663 0.829358 0.467152 -0.310686 0.418922 -0.251414 0.227038 -0.421645 0.579532 0.63198 -0.340676 -0.021464
neoplastic 0.40998 -0.043821 0.354345 2.26583 1.465172 -0.230116 -0.203238 -0.664135 -0.840541 -0.077198 0.065639 -0.895203 0.569691 0.805768 1.781068 0.371893 -0.293739 0.256615 2.03515 -0.375597 -0.813399 0.740256 0.953246 0.226523 -0.10343
submucosal 0.509802 -0.038606 0.927226 0.979225 1.153495 0.753098 -0.22725 -0.66886 -0.516151 2.102673 -0.513353 0.163337 0.772221 0.325724 1.127256 0.803829 -0.638398 0.619177 0.651966 -1.323794 -0.887147 0.791444 0.914499 0.449176 -0.756928
trachea 0.151711 0.265868 0.677817 0.299285 1.151551 1.253997 -0.181974 -1.229591 0.847187 1.181242 -0.149522 1.131302 0.600434 1.009864 0.128625 1.333186 0.502598 -0.189289 0.793651 -1.272811 -0.760885 0.872093 0.283575 0.483724 -0.516561
viscera -0.36752 -0.817171 0.596421 0.911758 1.401681 0.907673 0.26917 -0.549063 0.161921 0.817221 -0.516506 0.77733 0.01759 0.533513 -0.120557 1.107582 0.09864 0.054879 0.245068 -1.435792 0.186896 0.783978 0.031018 1.031407 -0.494047
colon 0.141154 0.85162 0.407964 1.875322 1.492453 -0.055327 -0.469396 -0.970982 -0.068263 0.810125 -0.311525 0.892058 1.139348 0.934713 0.310493 0.414116 -0.777784 1.058367 2.201456 -0.359824 -1.186196 0.361531 0.769414 0.482932 -0.11709
ureters 0.284557 -0.363321 1.069119 1.069908 -0.210301 0.859735 -0.000131 -0.706591 -0.017332 0.98843 -0.19728 1.709375 -0.607932 1.146105 -0.512019 1.286452 0.511991 0.677621 -0.213094 -1.014472 -0.921397 0.602927 0.390867 0.974003 -0.237998
ache 0.030179 0.27978 0.906791 -0.539887 -0.402303 1.241992 -0.903322 0.16347 -0.497568 -0.129651 -1.05319 -0.538107 0.329906 1.090467 -0.28705 -0.473488 -0.03414 0.093775 0.917815 -0.58542 1.52043 -0.263115 -0.497615 -0.211186 0.378465
limb -0.744463 -0.142516 -0.211137 0.316031 0.728067 1.874966 -0.470401 -1.241369 0.266425 0.939364 1.380773 1.377566 -0.551023 0.601235 -0.301907 0.758946 0.276813 0.330955 2.100416 -1.660065 0.60331 0.240955 0.39254 -0.60045 -0.007828
esophagus 0.026279 0.328735 0.77721 0.859665 1.072099 1.016905 0.110258 -0.921103 -0.089198 1.60324 -0.079322 0.871885 0.650875 0.565631 0.257454 0.606499 -0.50211 1.453693 0.999609 -0.919134 -0.703117 0.738213 0.773814 1.283666 -0.17556
epididymis -0.3129 -0.635838 1.040775 0.728653 1.268031 -0.036176 -0.788747 -1.329681 0.20776 0.107861 -0.497433 0.787502 0.169775 0.673121 -0.954948 0.684966 1.158691 0.092732 -0.031502 -1.283635 0.098805 1.017098 0.507842 0.205102 0.804444
mammary -0.043438 0.463018 -0.061328 2.50036 1.748162 -0.736444 -0.942129 -0.732032 0.30025 -0.169511 0.458854 0.602786 1.471339 1.349769 -0.164258 0.353662 -0.049173 0.347505 1.7733 -0.91494 -0.663159 0.423913 1.076209 -0.228902 0.32223
headaches -0.014855 -0.197577 -0.341857 -0.624357 0.341124 3.317715 -0.228332 -0.021496 -1.602516 -0.653402 0.198755 0.049053 -0.544868 -0.282999 0.662085 0.195014 -0.60798 1.046662 1.348306 -1.24381 0.67705 -0.50939 0.602487 1.297573 -0.235495
sweating -0.73786 -0.405284 0.23029 -0.841324 0.550119 2.869119 -0.36936 0.008709 -0.199912 -0.262853 0.06196 -0.04594 -0.262242 -0.068379 0.232587 1.826656 -0.578562 1.151487 0.610604 -0.656949 1.858691 0.377699 0.414631 0.739212 -0.178127
caecum -0.596866 0.243596 1.128566 0.509598 1.29596 0.180328 -0.389828 -1.028644 0.451526 1.158101 -0.602631 0.735277 0.502249 0.463299 -0.829764 0.832501 0.565801 0.343263 -0.076304 -0.29249 -0.577691 0.482842 0.341511 1.533836 -0.272296
tumour 0.435991 0.328837 0.566436 1.771391 1.872344 -0.525544 -0.692328 -0.988117 -0.320631 0.686525 -0.135791 -0.561693 1.106126 0.623501 1.140179 1.029106 -0.828289 0.114349 3.230667 -0.047809 -1.617072 0.039628 0.698096 -0.094604 0.347885
vomitus 0.079414 -0.733248 0.744741 -0.355081 1.300883 1.659691 0.087453 -0.46047 -0.43395 0.243381 -1.644367 -0.807546 -0.11162 -0.221513 -0.579469 0.567622 0.244845 -0.854984 -0.888511 -0.126907 0.629927 0.862002 0.179032 1.012443 0.441985
dyspncea -0.33552 -1.756651 -0.096287 -1.134874 -0.168167 1.663588 -0.577539 0.453439 -0.04756 -0.322896 -0.823445 -1.187301 -0.773707 0.456929 0.800119 1.334437 -0.626794 0.669026 -0.438793 0.078186 1.059969 0.055602 0.330394 0.374 0.434978
vagina -0.154551 -0.302654 0.696166 0.662603 1.39595 1.495623 0.375639 -1.437685 0.550998 0.981496 0.056101 1.152581 0.99117 0.345053 -0.016157 0.624805 0.611301 0.075449 0.532729 -0.157797 -0.22005 0.895436 0.386125 1.180637 -0.149606
oesophagus -0.275513 0.026015 0.45102 0.490845 1.126384 0.730591 0.204742 -0.928592 -0.132119 1.009952 0.180503 0.666896 0.9651 0.339959 0.059698 0.358453 -0.313266 1.438852 0.433295 -0.54339 -0.839558 0.427948 0.854037 1.582882 -0.4051
schistosomiasis -1.808371 -0.994464 -0.548116 -0.679605 0.847482 0.513898 0.099008 0.134362 -0.247307 -0.113498 -1.095302 0.641841 0.604425 0.449012 1.0835 -1.537968 -1.478317 -0.609822 0.802716 -0.278799 -0.377704 -0.012542 0.374723 0.27522 -0.487694
ankle -1.237098 -0.216626 0.222814 -1.174631 0.046842 2.3191 -0.609215 -1.709593 0.669845 1.437655 0.862749 1.545072 -0.740461 -0.052224 0.176936 0.354021 0.354294 0.126867 1.318063 -1.545927 0.781196 -0.287292 -0.50109 -0.873398 0.25835
legs 0.167266 -0.848484 -0.363894 -0.148429 0.481443 2.622193 0.140741 -1.953035 0.34013 0.59673 0.615522 0.406875 0.09283 0.821341 -0.801922 0.692883 0.861657 0.856931 1.27013 -1.190853 0.883456 0.173406 -0.903027 0.188053 -0.352458
toe -0.733101 -0.363961 -0.014205 -1.06783 0.746433 1.952308 -0.025588 -1.027335 0.418925 1.325232 0.445933 0.716682 -0.276725 0.490143 -0.230443 0.459695 0.464404 0.564359 0.467755 -0.744831 0.913608 0.364397 -0.329838 0.033622 0.912691
emesis -0.395431 0.488016 0.20494 -0.791408 0.996837 2.168042 -1.121133 0.815915 -0.678611 -0.365689 0.256754 -0.268365 0.810233 0.050532 0.354456 0.683618 -0.941587 -0.206226 0.078901 -0.167645 0.288726 -0.570582 0.800946 0.723936 0.213914
anus -0.176815 -0.112205 0.312459 0.111484 1.055727 1.371989 0.757638 -0.983616 0.437216 1.058599 0.637849 1.405202 0.812708 0.391096 0.238774 0.700766 0.784025 1.108726 0.211802 -0.411096 -0.373472 1.146764 0.433515 1.665826 0.147092
head 0.210251 -0.328091 -0.142885 -0.383652 0.529645 1.457525 0.469204 -1.632227 0.117846 1.220041 0.679457 0.664234 0.09783 0.65484 -0.025914 0.156667 0.466901 0.588234 2.828989 -1.479246 0.512792 0.480447 -0.276703 0.125631 0.098608
meningitis -1.694205 0.534903 0.050603 -0.451107 0.343616 1.748255 -0.635016 -0.847286 -0.65304 -0.448127 -0.625748 -0.46259 0.224127 0.651302 1.772754 -0.757929 -0.907166 -1.060025 1.510646 -0.979418 -1.2569 -0.468017 0.596142 1.18456 -0.550239
vomits 0.309713 -0.833807 1.010296 -0.426768 0.875803 1.475169 0.646996 -0.139671 -0.91359 -0.780044 0.44427 -0.524373 -0.354873 0.058171 -0.773423 1.008512 0.587576 -0.355464 -0.840397 0.565566 -0.76736 -0.027679 0.222412 0.892824 -0.204342
leishmaniasis -1.214569 -0.202986 -0.447953 -0.328501 0.48948 0.529041 -0.248362 0.066982 -0.249494 -0.06638 -0.512662 0.157798 1.050876 0.678548 2.194357 -1.315856 -1.16077 -0.851827 0.945959 -0.881616 -0.988265 -0.611827 -0.221798 0.49733 -1.273329
measles -1.301999 -0.504492 -0.362559 -1.22885 -0.12184 0.935442 -0.275246 -0.490887 -0.822537 -1.030704 -0.59105 -0.343396 0.669806 1.078956 1.154052 -0.963178 -0.671135 -1.842598 1.529461 0.527675 -1.05952 -0.660253 0.01928 -0.025033 0.021612
coughing -0.857305 0.027248 0.228257 -1.350264 0.775751 3.55917 0.304777 -0.265267 0.129923 -0.490131 -0.625403 0.371827 -0.509005 0.431191 0.478954 1.34866 -0.854473 -0.150474 0.67292 -0.121124 0.74839 0.456983 0.47824 0.682759 -0.353445
esophagectomy -0.515485 -0.097941 -0.046067 0.624847 0.068617 0.297865 -0.071827 -0.203664 0.442355 1.70815 0.961564 2.06105 0.260833 0.115565 0.297276 1.073153 -1.06022 -0.087243 0.155898 -0.068388 -2.224733 -0.591286 1.021505 1.2613 0.607829
corticotroph -0.063493 0.016884 0.823785 1.419424 1.253307 -0.094609 -0.683796 0.708108 -0.526275 -0.32754 0.621964 0.315656 -0.17876 0.484246 -0.109665 0.639224 0.291597 0.408264 -1.174967 -1.201717 -0.871625 0.202618 1.01169 -0.128136 -0.271911
bladder -0.047471 0.296302 0.788086 1.195478 1.264242 0.808459 -0.347696 -0.702186 -0.169621 1.04908 -0.422181 1.210604 0.445698 0.561266 0.417281 0.646657 -0.886442 0.826777 1.954558 -0.847088 -0.529669 0.330472 0.95121 0.517806 -0.182992
non-thyroid 0.019787 -1.133715 -0.747335 1.149341 0.300702 -0.636728 -0.095578 1.214797 -1.117083 -0.096185 -0.797151 0.130183 0.145095 0.322932 0.341551 0.668215 -0.417331 0.139667 -0.796477 0.240148 -0.745884 0.269283 1.025434 0.848612 -0.82351
jejunum -0.193009 0.412815 0.798965 0.447043 1.022686 0.182204 -0.751387 -1.288402 0.508103 1.005489 -0.631305 0.953291 0.501881 0.728279 -0.71129 0.921425 0.368214 0.699846 0.276826 -1.005701 -0.659322 0.89921 0.655162 0.624421 -0.334319
rectum -0.072525 -0.0294 0.835622 0.28769 1.459444 0.624532 0.364146 -1.267874 -0.205862 1.654645 0.30568 1.06379 0.856525 0.237624 0.204045 1.066115 -0.150856 0.997357 1.022053 -0.565695 -1.250898 0.382313 -0.072287 1.285373 -0.163567
re-operation -1.149403 -0.134848 0.804362 -0.646897 -0.071522 1.370121 0.076816 -0.478821 -0.652265 0.908893 0.939529 0.924418 -0.600556 -0.059194 0.367279 0.831541 -0.52926 -0.680165 0.520768 0.413371 -1.383704 -0.147201 1.699485 0.855313 0.393514
haemoptysis -0.59685 -0.333353 0.160394 -0.917082 0.769047 2.553768 -0.164082 0.146407 -1.229434 -0.0884 -0.676052 -0.3079 -0.444683 0.330426 1.101458 1.466973 -0.955007 0.915205 -0.14048 0.278125 -0.433658 -0.007051 0.555086 1.283481 0.504001
intestines -0.133533 -0.255873 0.399169 1.19958 1.015487 0.584833 -0.323608 -1.080908 0.950332 -0.233331 -1.004793 0.650573 0.448742 1.361524 -0.538113 1.14892 0.137075 -0.005034 0.583938 -0.78777 -0.165583 0.903819 0.330291 0.739726 -0.702836
renal -0.631178 0.277892 1.925824 1.426384 0.47804 0.469413 -1.011273 -0.822691 -0.935759 -0.03051 -0.286019 1.044211 -0.273149 0.387885 0.925427 0.965151 -1.200224 0.697325 3.113305 -1.613458 -0.909782 0.193213 1.247276 0.237198 0.035712
resection 0.062548 0.114809 0.96211 1.066346 0.888309 0.8889 -0.008351 -0.907526 -0.347839 2.274478 1.373018 1.502881 0.260272 0.463452 0.602806 1.052566 -0.989592 0.336936 2.709624 -0.724973 -2.069675 -0.392001 1.07286 0.925853 0.872129
zymbal -0.110819 -0.177072 -0.117396 0.708173 1.389192 0.429972 -1.017719 0.051825 0.349156 -0.107844 -0.645877 -0.024209 1.461543 -0.154331 0.020917 0.580064 -0.041085 -0.190304 -0.86728 -0.595005 -0.242265 0.004239 0.506959 1.352497 -0.262673
meibomian -0.891091 -0.322225 0.766022 1.135135 0.495122 0.517949 -0.330571 -0.870703 -0.24806 1.016918 -0.543896 0.890192 -0.230037 -0.367837 -0.263712 -0.107189 -0.234272 0.920844 -1.074588 -1.246812 0.539633 0.803386 0.808695 -0.239873 0.570147
laparotomy 0.258104 0.251411 0.451365 0.873411 1.027464 1.666676 -0.080397 -0.731226 6.6e-05 1.582268 0.489813 1.559337 -0.179974 -0.163342 0.222831 1.489115 -0.854551 -0.242655 1.411737 -0.343784 -1.806083 0.001557 1.124565 1.246922 0.732573
laparoscopy 0.165644 -0.680495 -0.146032 1.072891 0.125842 1.08391 0.017618 -0.265821 0.418966 1.567796 0.648269 1.926038 -0.148121 -0.268973 0.39129 1.060159 -1.327571 -0.052044 1.477897 -0.335286 -1.170709 -0.781496 0.640034 0.978847 0.554852
pneumonia -1.540989 0.820039 0.359487 -0.431746 0.668231 2.04465 -0.240552 -1.097769 -0.920191 -0.656072 -0.917246 0.116165 -0.131709 0.033617 1.786686 -0.431435 -1.269292 -0.81469 2.129244 -0.51032 -1.356548 -0.327441 0.620867 1.155957 -0.763877
revascularisation -0.981474 0.222838 0.113718 -0.072458 -0.093337 0.393237 0.27761 0.619353 -0.663074 0.8885 0.999449 2.10792 -0.684701 0.023898 0.298065 0.904703 -1.238626 -0.00967 0.831379 -0.202312 -1.857451 -0.081159 1.458454 0.121907 -0.078674
tarsus -0.567282 -0.768422 -0.029453 -0.243391 0.974112 1.039711 -0.565585 -2.199533 0.335555 1.117343 0.766977 -0.316563 0.457417 -0.077907 -1.487723 -0.045753 1.662725 0.67337 -0.24389 -0.618957 0.721029 -0.472409 -0.839226 0.353622 0.528479
retroperitoneum -0.294759 -0.697766 0.459163 1.128805 1.435879 0.362169 0.459579 -0.61399 -0.249959 1.120197 0.602542 0.923817 0.516693 0.8312 0.681599 1.365342 0.241382 1.052265 0.200747 -1.242381 -1.100668 0.266237 -0.12632 1.526822 -0.334544
suprarenal 0.069238 -0.497092 1.235018 0.465996 0.733879 0.556487 -0.944246 -0.47162 0.289987 1.223499 0.236477 0.314673 0.122072 0.282097 -0.507613 0.947146 0.591466 0.032004 0.006272 -1.677739 -0.255217 -0.186018 0.261272 0.794518 -0.247102
forearm -0.430943 -0.283758 0.664216 -0.932275 0.444079 1.720569 -0.42079 -1.404796 0.254714 1.638713 0.12475 1.635385 -0.177187 0.086576 -0.294104 1.113739 0.229285 0.348429 0.941405 -1.341174 0.137622 0.14663 -0.394481 -0.51923 -0.400608
pancreaticoduodenectomy -0.705712 -0.223934 0.671501 1.088676 0.443528 0.389388 -0.147333 -0.347323 0.016113 0.864414 1.249872 1.314226 -0.272738 -0.010876 -0.499359 0.545979 -0.65932 -0.045032 -0.013238 -0.757335 -1.792376 -0.79682 0.934681 1.31111 1.006579
fibroid -1.094677 -0.817311 0.591549 0.800484 0.762241 0.129109 0.421073 -0.689714 -0.936856 1.399316 0.207485 0.331274 0.04976 -0.023509 -0.593463 0.240428 -1.069929 0.493141 -0.402914 -0.974889 -0.665114 0.047073 0.894521 0.235853 0.266741
myomectomy -0.769863 -0.554881 0.977532 0.781391 -0.224465 0.945877 0.120961 -0.805955 0.210749 1.797792 0.636513 2.153111 0.367571 -0.328659 -0.923508 -0.379928 -1.042658 -0.065895 -0.182473 0.160042 -1.239698 -0.419601 1.536903 1.213355 0.726092
ureter -0.07767 -0.095135 1.499971 0.667732 0.341954 0.907579 0.379431 -0.948506 0.39755 1.870552 0.647802 1.370275 -0.201639 1.169741 -0.252298 0.975748 0.383063 0.863312 0.59092 -1.396397 -1.106881 0.816565 0.648673 0.76932 0.044152
thyroidal -0.26093 -0.828595 1.53453 0.276494 -0.132216 -0.543416 -0.729928 0.771986 -1.22969 0.098564 -0.426892 -0.187866 0.00875 -0.157287 0.784246 1.261257 -0.198213 0.71551 -0.501954 -0.146837 0.035873 0.302544 0.642201 0.055302 0.294559
prostration -1.314122 -0.619704 -0.359278 -0.728249 -0.129595 2.349505 -0.471827 -0.55522 -0.272147 -1.091884 0.452172 -0.854188 -0.740451 0.317078 0.666514 1.317165 0.025693 0.110285 0.015246 -0.330295 0.813804 0.034706 0.39799 0.866371 0.698855
urinate 0.384323 -1.094886 0.820401 0.045944 0.650587 1.948367 1.361994 0.248917 -0.015593 -0.802168 0.003405 0.735774 -0.718532 0.425847 -0.939639 2.05493 -0.395381 0.36106 -0.343274 1.105155 -0.339834 0.425947 0.395215 0.8327 -0.355297
operation -0.003306 0.108935 -0.108625 -0.221279 0.45611 0.994344 0.776689 -0.522537 0.204834 0.987911 1.115163 0.993102 -1.021692 -0.52929 -0.193803 1.170939 -0.976159 -0.695812 2.978779 -0.965425 -0.607587 -0.266485 0.433359 0.735107 0.192709
orchiectomy 0.418583 -0.433175 0.467085 0.799432 0.944779 1.154358 -1.090872 0.234626 -0.655987 0.757439 0.695031 1.741843 0.851192 0.28474 -0.568177 1.343705 -0.235048 -0.363606 -0.056109 -0.377511 -1.213975 -1.296418 0.275692 0.496164 1.095133
cyanosed 1.020439 -2.529019 0.647702 0.330025 -1.019393 1.401736 0.56626 -0.925175 -0.322867 -0.429693 -0.923206 -0.678549 0.11126 0.653947 0.010761 1.376223 -0.514606 0.884495 -0.73854 0.102348 -0.491725 0.205314 0.319421 -0.187096 -0.113884
surgical 0.436345 -0.542881 -0.062386 0.742679 0.464835 1.82793 0.516598 -1.08187 -0.201813 1.465981 0.782754 2.259002 0.138273 -0.796164 0.921287 0.665828 -1.412933 -0.524858 3.409176 -1.203845 -1.193603 -0.170907 0.862618 0.956947 0.726857
endometrial -0.228528 0.434228 0.348448 1.632516 1.29811 -0.329873 -0.981012 -0.570367 -0.820285 0.678895 -0.183879 1.306474 1.101398 0.320663 0.302506 -0.102741 -0.647414 0.654468 1.398335 -0.293729 -0.947893 0.517828 1.626251 -0.056343 0.384338
melanoma 0.33283 0.534801 -0.438483 1.427241 1.144623 -0.113166 -0.388051 -0.479892 -0.509594 0.00908 -0.112761 0.105675 1.664116 1.309062 1.165423 -0.860102 -1.237643 0.597551 2.209971 0.186601 -1.650056 -0.262923 0.360287 -0.50919 -0.03999
lungs -0.110053 0.20315 0.326526 0.858976 1.496583 0.903589 -0.874511 -1.37729 0.637799 -0.300021 -1.610698 0.070259 0.556058 1.672215 -0.166871 1.336695 -0.656929 -0.222563 1.804932 -1.204347 -0.881254 0.8098 0.236992 -0.33452 -0.987212
choking -0.75737 -0.298219 -0.31535 -0.712382 0.70973 2.705117 0.814672 0.356087 0.206658 -0.491182 -0.15725 0.114351 -0.999612 -0.591416 0.272676 1.13074 -1.100287 0.207544 -0.333833 0.166641 0.815828 0.361947 0.458927 0.901771 -0.41698
parotid 0.217873 -0.042179 1.031298 0.716987 1.199951 0.462789 -1.02842 -0.756591 -0.693337 1.186259 -0.188133 0.289096 0.514733 0.585258 0.246473 0.905879 0.380829 0.267052 0.599499 -1.571895 -0.970001 0.05568 0.45386 0.562598 -0.18989
diarrhea -1.73927 0.323306 0.085208 -0.676887 0.6576 2.776795 -0.106355 -0.854581 -1.171446 -0.975035 -0.768116 0.096916 0.341046 0.109808 0.475614 -0.130545 -1.40871 -0.109102 1.642075 -0.070544 0.506953 -0.131591 0.72183 1.637041 -0.290585
tonsillectomy -0.400736 0.091608 -0.108495 0.203107 0.17102 1.536221 -0.610674 0.055856 -0.294874 0.521415 0.222458 1.63784 0.006892 -0.301868 -0.018907 0.668855 -0.806615 -0.366347 -0.29639 -0.699407 -1.178901 -0.79039 0.808658 0.832214 0.096267
parathyroid 0.114088 -0.264748 1.743368 1.697657 0.786614 0.036363 -1.023586 -0.05224 -1.166164 0.433635 -0.442342 0.796451 0.295889 0.525231 0.181506 1.348033 -0.145464 0.568582 0.761785 -0.993099 -0.336588 -0.264862 0.300891 0.827135 1.103812
spermatogenesis -0.84928 -0.274495 0.24326 1.323394 0.646584 0.047268 -0.839387 0.004081 0.338547 -0.969516 1.00682 0.151002 -0.278348 1.244275 -0.695165 0.153094 0.520591 -0.235017 1.267319 -0.453201 0.436179 0.69595 1.972452 0.260856 1.202638
parathyroidectomy -0.655961 -0.656741 0.991646 0.805686 -0.237132 0.777324 -0.676265 0.281591 -0.351334 0.879744 0.346491 1.572488 -0.241811 0.218894 -0.657524 1.039147 -0.950778 -0.115066 -0.310958 -0.306104 -0.971445 -0.895575 0.976485 0.884808 1.031456
tibia -0.521856 -0.633866 0.106422 0.139131 0.090328 0.747028 -0.604322 -2.796968 0.431458 1.94844 0.853793 0.645733 0.939118 0.537784 -0.658853 0.32934 0.689482 0.723863 1.018335 -1.603338 -0.16737 -0.165129 -0.255638 -0.221032 0.418329
reoperation -1.480012 0.233751 1.113915 -0.52504 -0.078235 1.207839 0.206946 -0.841563 -0.613722 1.07487 0.892301 1.234124 -0.465179 -0.298637 0.227763 0.404444 -0.813278 -0.411681 1.184785 0.302579 -1.680354 -0.100372 1.528876 1.008904 0.668874
gonads -0.226985 -0.653436 -0.636456 1.704947 1.057118 -0.09811 -0.668464 -1.149045 0.307393 -0.731033 0.118711 0.331502 0.081635 1.474438 -1.246703 0.756639 1.150454 0.540094 0.498794 -0.763291 0.057815 0.64381 0.726806 0.154062 0.549867
fever -1.098626 -0.092756 -0.318746 -1.518127 1.128771 3.089192 -0.43647 -0.923587 -0.851761 -0.940896 -0.873534 -0.635714 0.441324 0.522949 1.573922 0.064264 -0.763362 -0.469953 2.504094 -0.416861 -0.111799 -0.212564 0.065053 1.743411 -0.331578
gynoecium -0.592802 -0.514118 -0.035341 0.837098 0.41383 0.066747 -0.318783 -0.631145 0.628516 0.242722 1.823794 0.151916 0.094241 0.595872 -1.050504 -0.326317 1.122539 0.631583 -0.408034 -1.728959 0.533052 0.629103 0.872731 -0.028872 0.958351
cholecystectomy -0.314409 0.080204 0.573927 0.533713 -0.217094 1.298212 0.243785 -0.149957 -0.085686 1.521718 0.569292 1.679081 -0.482031 0.023893 -0.259411 0.764098 -1.16643 0.067671 1.140434 -0.478711 -1.530251 -1.065025 0.912823 2.19142 0.514203
pylorus -0.25116 -0.099172 1.419924 0.483551 0.946389 0.963218 -0.029815 -0.482755 0.561417 1.782715 0.398508 0.91883 0.387712 0.544899 -0.905685 0.850063 -0.177798 0.675606 -0.305005 -0.646729 -0.372698 0.23574 0.509068 0.942031 0.179686
typhoid -0.846531 -0.15116 -0.236268 -0.269928 0.266331 1.678789 -0.376725 -0.82322 -0.177209 -0.79628 -1.197747 -1.066905 0.560606 0.434274 1.263729 -0.557625 -0.718568 -1.70964 0.915307 -0.107737 -0.838269 -0.49904 0.104919 1.06424 -0.814081
breathlessness -0.913964 -0.610456 -0.221352 -0.990687 0.689829 2.737755 0.176382 -0.142706 -0.929604 -0.405715 -0.101368 0.387289 -0.738808 -0.653627 0.681787 1.046222 -1.373435 1.281608 0.522733 -0.576628 0.8438 -0.07021 0.110041 0.158907 0.388705
perianth -0.32338 -0.669997 -0.08385 1.221187 1.271106 0.182482 0.007332 -0.866725 0.018024 0.318399 0.809511 -0.150098 0.507385 -0.506101 -0.431941 0.096412 1.412364 -0.263787 -0.747171 -1.257747 1.161209 0.693904 -0.19997 0.442313 0.358318
abdomen 0.288201 -1.229343 -0.157708 0.174359 1.132973 2.071779 -0.048923 -1.730508 -0.019991 1.693305 -0.152328 0.527858 0.22696 0.977985 0.047607 1.746274 -0.175708 0.91638 1.737245 -1.565462 -0.036253 0.371393 -0.423116 0.888263 0.250501
discomfort -0.272352 -0.913229 0.070724 -0.59793 0.84362 3.513404 -0.050275 -0.954785 -0.629813 0.345324 -0.087954 0.960533 -0.086835 -0.582247 0.831954 1.346596 -0.810454 0.930757 2.030688 0.343828 1.151485 0.011057 -0.010113 0.266685 0.541855
cyanosis -0.831945 -0.953965 0.49802 -0.742038 -0.009128 2.565975 -0.23339 -0.589927 -0.418994 -0.255493 -0.222017 -0.388002 -0.764917 0.632018 1.076494 2.250898 -0.366295 0.994417 0.523889 -1.058586 0.777263 0.513059 0.220617 0.924533 0.099607
wrist -0.763013 -0.340764 0.369865 -1.221131 -0.178895 2.424141 -0.542769 -1.176006 0.242647 1.727073 0.430475 1.461014 -0.624605 0.303435 0.060259 0.374797 0.702457 0.448962 1.118775 -1.324862 0.812536 -0.22862 -0.840294 -0.655804 0.463995
pre-malignant -0.721556 -0.137711 -0.53694 1.881609 0.928932 -0.240956 0.408793 -0.499432 -0.919531 -0.151864 0.305524 -0.49542 0.105969 0.280349 0.802449 0.376818 -0.740911 0.142618 -0.025149 -0.305953 -0.944493 0.621408 1.234405 -0.150922 -0.186722
ileum -0.132136 0.925549 1.255397 0.378187 1.183375 0.750137 -1.021247 -1.106026 0.482529 1.059706 -0.84391 0.860164 0.557544 0.902737 -0.514923 0.821905 0.466078 0.43488 0.552151 -0.930135 -0.644296 0.793786 0.627486 0.73345 -0.628798
bowels 0.369666 -0.925229 0.821978 0.162746 0.959002 1.84694 1.072752 -0.51982 0.145452 -0.142586 -0.036812 0.748556 -0.034041 -0.031075 -0.534025 1.174435 -0.103773 0.456724 -0.373213 -0.647132 -0.122224 0.960913 0.298455 0.814371 -0.840317
suck 0.045051 -0.666065 0.729673 0.253058 0.499248 1.565222 0.716768 0.053499 1.025951 -0.837818 0.242759 0.246168 -0.569957 -0.047118 -0.884942 1.109531 0.212188 -0.275624 -0.437626 -0.169333 0.437777 0.492597 0.375336 0.745185 -0.345057
mesentery 0.445698 -0.023922 0.88474 0.865861 1.359235 0.454542 0.011934 -0.943217 0.485649 1.312386 0.077269 0.472583 0.322727 0.521522 0.031991 1.114255 0.518843 0.432676 0.303423 -1.443249 -0.690154 1.161736 0.390331 0.771248 -0.625879
prostate -0.083571 -0.187612 0.104082 1.681119 1.479173 -0.576118 -0.451291 -0.410823 -0.825516 0.679764 -0.051153 1.162274 1.021697 0.745427 0.433446 -0.18745 -1.415307 1.270614 2.626585 -0.265749 -1.19193 -0.142982 0.847405 -0.432286 0.355789
duodenum -0.092719 0.206005 1.468343 0.618268 1.372136 0.426934 -0.416493 -1.114366 0.22513 1.271654 -0.362284 0.999851 0.615486 0.841565 -0.402261 1.031613 0.370736 0.857384 0.825749 -0.948694 -0.616116 0.836655 0.607086 1.13589 -0.196683
bronchi -0.039101 -0.028821 0.848668 0.144666 1.281775 0.799206 -0.312058 -0.746559 -0.434232 0.951383 -0.463307 0.096262 0.342586 0.731676 0.52566 0.95803 0.806905 0.021304 0.095857 -1.547029 -0.55417 1.065122 0.306713 0.535419 -1.361844
vomited 1.454419 -1.304659 0.705542 -0.10811 0.061876 2.691103 0.389341 -0.888838 -0.667534 -0.651283 -0.686442 -0.741915 0.098624 0.53486 -1.813896 0.866911 -0.181013 -0.705298 0.266961 -0.018233 -0.626819 -0.387764 0.132587 1.438599 0.080618
prostatic -0.118718 0.261747 0.870455 1.843532 1.340825 0.175279 -0.651155 -0.725384 -0.815938 1.020133 -0.02417 0.906037 0.885441 0.262992 0.592477 0.241315 -0.535372 0.772585 0.961129 -0.999222 -0.659498 0.377556 0.92659 0.374113 0.444655
abomasum -0.944848 -0.564169 0.974484 -0.000548 0.292801 0.017709 -0.02861 -0.536367 0.49768 0.075309 -0.962222 0.187076 -0.071306 0.810601 -0.330438 0.397954 0.757727 -0.278764 -1.444035 -0.447212 -0.487259 0.800986 0.085439 1.060479 -0.305001
maxilliped 0.835515 0.109909 0.984858 -0.711634 0.170828 0.568604 -0.712439 -0.790827 0.746319 1.536412 2.022353 -0.436174 0.728425 -0.37671 0.017339 -0.333521 1.127458 -0.491609 -0.53955 -0.154598 -1.5707 -0.233689 0.829093 0.743762 1.174026
pereopod 0.990906 -0.511 0.489233 -0.91175 0.290212 0.90989 -2.086322 -0.717832 -0.681948 0.773424 1.691425 -2.42111 1.08025 -0.735371 -1.022158 0.640734 1.417096 -0.527658 0.054325 0.04975 0.055007 -1.948187 -0.243213 0.471231 1.284395
polyp -0.518484 0.237932 0.831257 1.136381 0.951806 0.143674 0.05298 -0.848881 -0.827216 1.08385 -0.378309 0.110402 0.192875 0.271339 -0.421178 -0.107418 -0.450339 0.711367 0.41597 -0.588297 -0.298038 0.541864 0.753742 0.617105 0.209268
upset 0.495697 -0.878153 0.813526 0.705788 0.194831 2.333235 1.069356 -0.255124 0.142613 -1.465911 0.301625 -0.059872 -0.675831 -0.246016 0.247118 1.166902 -0.27418 1.27848 0.624658 0.607027 0.647988 0.124371 0.00992 1.003241 -0.514043
trypanosomiasis -1.472005 -0.201129 -0.908613 -0.405192 -0.234193 0.726871 0.507 0.312245 0.179849 -0.475263 -0.202091 0.095267 0.869461 0.916497 1.160074 -1.326273 -1.209268 -0.548264 0.274025 -0.803939 -0.184759 -0.61506 -0.317709 0.509963 -0.723526
uteri 0.044228 0.018446 -0.122388 1.209745 0.480086 0.36642 -0.489524 -1.14998 0.01231 -0.056435 -0.300866 1.088871 0.689014 0.759888 -1.037326 0.471228 0.453341 0.815898 -0.284546 -0.691052 -1.076751 0.415675 1.077358 0.601613 0.138743
uterus -0.153295 -0.426792 0.696164 1.215982 1.358135 0.833219 -0.456653 -1.481407 0.307402 0.489038 0.168246 1.113535 0.669604 0.55316 -0.489216 1.000427 0.528864 0.372781 1.006731 -0.819928 -0.367478 0.810947 0.836336 0.572416 0.332447
ovary -0.015121 0.203043 0.122305 1.630995 1.631775 -0.34156 -0.726136 -1.215851 0.065649 -0.071857 0.095984 0.541929 0.856317 1.090215 -0.888181 0.460587 0.522773 0.487948 1.502468 -1.007774 -0.522067 0.746351 0.862601 0.68138 0.683157
mastectomy -0.151686 -0.201292 0.276726 0.647811 0.897781 0.957922 -0.182132 -0.858499 -0.442156 1.659834 1.049487 1.984675 0.48857 -0.268227 0.219667 0.799689 -0.651597 0.140844 0.869996 0.115942 -1.93781 -1.040613 0.315433 0.905968 0.739022
onchocerciasis -1.697173 -0.769521 -0.487901 -0.950514 -0.074039 0.497673 0.626334 0.625185 -0.227276 0.86195 -0.57571 0.594252 0.434675 0.784267 0.91932 -1.268188 -1.658625 -0.100268 0.002613 0.02442 -0.636156 -0.383858 -0.024681 -0.247889 -0.865529
